digraph Tree {
node [shape=box, style="filled, rounded", color="black", fontname="helvetica"] ;
edge [fontname="helvetica"] ;
0 [label="ratio_to_median_purchase_price <= 4.0\ngini = 0.16\nsamples = 1000000\nvalue = [912597, 87403]\nclass = fraud", fillcolor="#e78d4c"] ;
1 [label="distance_from_home <= 100.004\ngini = 0.049\nsamples = 896842\nvalue = [874390, 22452]\nclass = fraud", fillcolor="#e6843e"] ;
0 -> 1 [labeldistance=2.5, labelangle=45, headlabel="True"] ;
2 [label="distance_from_last_transaction <= 50.028\ngini = 0.012\nsamples = 852163\nvalue = [847102, 5061]\nclass = fraud", fillcolor="#e5823a"] ;
1 -> 2 ;
3 [label="distance_from_last_transaction <= 50.001\ngini = 0.0\nsamples = 839540\nvalue = [839539, 1]\nclass = fraud", fillcolor="#e58139"] ;
2 -> 3 ;
4 [label="gini = 0.0\nsamples = 839531\nvalue = [839531, 0]\nclass = fraud", fillcolor="#e58139"] ;
3 -> 4 ;
5 [label="distance_from_last_transaction <= 50.004\ngini = 0.198\nsamples = 9\nvalue = [8, 1]\nclass = fraud", fillcolor="#e89152"] ;
3 -> 5 ;
6 [label="gini = 0.0\nsamples = 1\nvalue = [0, 1]\nclass = not fraud", fillcolor="#399de5"] ;
5 -> 6 ;
7 [label="gini = 0.0\nsamples = 8\nvalue = [8, 0]\nclass = fraud", fillcolor="#e58139"] ;
5 -> 7 ;
8 [label="online_order <= 0.5\ngini = 0.48\nsamples = 12623\nvalue = [7563, 5060]\nclass = fraud", fillcolor="#f6d5bd"] ;
2 -> 8 ;
9 [label="gini = 0.0\nsamples = 4372\nvalue = [4372, 0]\nclass = fraud", fillcolor="#e58139"] ;
8 -> 9 ;
10 [label="used_chip <= 0.5\ngini = 0.474\nsamples = 8251\nvalue = [3191, 5060]\nclass = not fraud", fillcolor="#b6dbf5"] ;
8 -> 10 ;
11 [label="used_pin <= 0.5\ngini = 0.188\nsamples = 5300\nvalue = [557, 4743]\nclass = not fraud", fillcolor="#50a9e8"] ;
10 -> 11 ;
12 [label="gini = 0.0\nsamples = 4743\nvalue = [0, 4743]\nclass = not fraud", fillcolor="#399de5"] ;
11 -> 12 ;
13 [label="gini = 0.0\nsamples = 557\nvalue = [557, 0]\nclass = fraud", fillcolor="#e58139"] ;
11 -> 13 ;
14 [label="repeat_retailer <= 0.5\ngini = 0.192\nsamples = 2951\nvalue = [2634, 317]\nclass = fraud", fillcolor="#e89051"] ;
10 -> 14 ;
15 [label="used_pin <= 0.5\ngini = 0.218\nsamples = 362\nvalue = [45, 317]\nclass = not fraud", fillcolor="#55abe9"] ;
14 -> 15 ;
16 [label="gini = 0.0\nsamples = 317\nvalue = [0, 317]\nclass = not fraud", fillcolor="#399de5"] ;
15 -> 16 ;
17 [label="gini = 0.0\nsamples = 45\nvalue = [45, 0]\nclass = fraud", fillcolor="#e58139"] ;
15 -> 17 ;
18 [label="gini = 0.0\nsamples = 2589\nvalue = [2589, 0]\nclass = fraud", fillcolor="#e58139"] ;
14 -> 18 ;
19 [label="online_order <= 0.5\ngini = 0.475\nsamples = 44679\nvalue = [27288, 17391]\nclass = fraud", fillcolor="#f6d1b7"] ;
1 -> 19 ;
20 [label="distance_from_last_transaction <= 50.14\ngini = 0.027\nsamples = 15626\nvalue = [15410, 216]\nclass = fraud", fillcolor="#e5833c"] ;
19 -> 20 ;
21 [label="gini = 0.0\nsamples = 15382\nvalue = [15382, 0]\nclass = fraud", fillcolor="#e58139"] ;
20 -> 21 ;
22 [label="used_pin <= 0.5\ngini = 0.203\nsamples = 244\nvalue = [28, 216]\nclass = not fraud", fillcolor="#53aae8"] ;
20 -> 22 ;
23 [label="gini = 0.0\nsamples = 216\nvalue = [0, 216]\nclass = not fraud", fillcolor="#399de5"] ;
22 -> 23 ;
24 [label="gini = 0.0\nsamples = 28\nvalue = [28, 0]\nclass = fraud", fillcolor="#e58139"] ;
22 -> 24 ;
25 [label="used_chip <= 0.5\ngini = 0.483\nsamples = 29053\nvalue = [11878, 17175]\nclass = not fraud", fillcolor="#c2e1f7"] ;
19 -> 25 ;
26 [label="used_pin <= 0.5\ngini = 0.177\nsamples = 18902\nvalue = [1860, 17042]\nclass = not fraud", fillcolor="#4fa8e8"] ;
25 -> 26 ;
27 [label="gini = 0.0\nsamples = 17042\nvalue = [0, 17042]\nclass = not fraud", fillcolor="#399de5"] ;
26 -> 27 ;
28 [label="gini = 0.0\nsamples = 1860\nvalue = [1860, 0]\nclass = fraud", fillcolor="#e58139"] ;
26 -> 28 ;
29 [label="distance_from_last_transaction <= 50.575\ngini = 0.026\nsamples = 10151\nvalue = [10018, 133]\nclass = fraud", fillcolor="#e5833c"] ;
25 -> 29 ;
30 [label="gini = 0.0\nsamples = 10001\nvalue = [10001, 0]\nclass = fraud", fillcolor="#e58139"] ;
29 -> 30 ;
31 [label="used_pin <= 0.5\ngini = 0.201\nsamples = 150\nvalue = [17, 133]\nclass = not fraud", fillcolor="#52aae8"] ;
29 -> 31 ;
32 [label="gini = 0.0\nsamples = 133\nvalue = [0, 133]\nclass = not fraud", fillcolor="#399de5"] ;
31 -> 32 ;
33 [label="gini = 0.0\nsamples = 17\nvalue = [17, 0]\nclass = fraud", fillcolor="#e58139"] ;
31 -> 33 ;
34 [label="online_order <= 0.5\ngini = 0.466\nsamples = 103158\nvalue = [38207, 64951]\nclass = not fraud", fillcolor="#add7f4"] ;
0 -> 34 [labeldistance=2.5, labelangle=-45, headlabel="False"] ;
35 [label="distance_from_home <= 100.037\ngini = 0.217\nsamples = 36190\nvalue = [31714, 4476]\nclass = fraud", fillcolor="#e99355"] ;
34 -> 35 ;
36 [label="distance_from_home <= 1.9\ngini = 0.153\nsamples = 34415\nvalue = [31544, 2871]\nclass = fraud", fillcolor="#e78c4b"] ;
35 -> 36 ;
37 [label="used_chip <= 0.5\ngini = 0.487\nsamples = 4248\nvalue = [1781, 2467]\nclass = not fraud", fillcolor="#c8e4f8"] ;
36 -> 37 ;
38 [label="used_pin <= 0.5\ngini = 0.184\nsamples = 2731\nvalue = [280, 2451]\nclass = not fraud", fillcolor="#50a8e8"] ;
37 -> 38 ;
39 [label="gini = 0.0\nsamples = 2451\nvalue = [0, 2451]\nclass = not fraud", fillcolor="#399de5"] ;
38 -> 39 ;
40 [label="gini = 0.0\nsamples = 280\nvalue = [280, 0]\nclass = fraud", fillcolor="#e58139"] ;
38 -> 40 ;
41 [label="distance_from_last_transaction <= 50.469\ngini = 0.021\nsamples = 1517\nvalue = [1501, 16]\nclass = fraud", fillcolor="#e5823b"] ;
37 -> 41 ;
42 [label="gini = 0.0\nsamples = 1498\nvalue = [1498, 0]\nclass = fraud", fillcolor="#e58139"] ;
41 -> 42 ;
43 [label="used_pin <= 0.5\ngini = 0.266\nsamples = 19\nvalue = [3, 16]\nclass = not fraud", fillcolor="#5eafea"] ;
41 -> 43 ;
44 [label="gini = 0.0\nsamples = 16\nvalue = [0, 16]\nclass = not fraud", fillcolor="#399de5"] ;
43 -> 44 ;
45 [label="gini = 0.0\nsamples = 3\nvalue = [3, 0]\nclass = fraud", fillcolor="#e58139"] ;
43 -> 45 ;
46 [label="distance_from_last_transaction <= 50.038\ngini = 0.026\nsamples = 30167\nvalue = [29763, 404]\nclass = fraud", fillcolor="#e5833c"] ;
36 -> 46 ;
47 [label="gini = 0.0\nsamples = 29725\nvalue = [29725, 0]\nclass = fraud", fillcolor="#e58139"] ;
46 -> 47 ;
48 [label="used_pin <= 0.5\ngini = 0.157\nsamples = 442\nvalue = [38, 404]\nclass = not fraud", fillcolor="#4ca6e7"] ;
46 -> 48 ;
49 [label="gini = 0.0\nsamples = 404\nvalue = [0, 404]\nclass = not fraud", fillcolor="#399de5"] ;
48 -> 49 ;
50 [label="gini = 0.0\nsamples = 38\nvalue = [38, 0]\nclass = fraud", fillcolor="#e58139"] ;
48 -> 50 ;
51 [label="used_pin <= 0.5\ngini = 0.173\nsamples = 1775\nvalue = [170, 1605]\nclass = not fraud", fillcolor="#4ea7e8"] ;
35 -> 51 ;
52 [label="gini = 0.0\nsamples = 1604\nvalue = [0, 1604]\nclass = not fraud", fillcolor="#399de5"] ;
51 -> 52 ;
53 [label="distance_from_last_transaction <= 49.579\ngini = 0.012\nsamples = 171\nvalue = [170, 1]\nclass = fraud", fillcolor="#e5823a"] ;
51 -> 53 ;
54 [label="gini = 0.0\nsamples = 170\nvalue = [170, 0]\nclass = fraud", fillcolor="#e58139"] ;
53 -> 54 ;
55 [label="gini = 0.0\nsamples = 1\nvalue = [0, 1]\nclass = not fraud", fillcolor="#399de5"] ;
53 -> 55 ;
56 [label="used_pin <= 0.5\ngini = 0.175\nsamples = 66968\nvalue = [6493, 60475]\nclass = not fraud", fillcolor="#4ea8e8"] ;
34 -> 56 ;
57 [label="gini = 0.0\nsamples = 60203\nvalue = [0, 60203]\nclass = not fraud", fillcolor="#399de5"] ;
56 -> 57 ;
58 [label="distance_from_home <= 100.346\ngini = 0.077\nsamples = 6765\nvalue = [6493, 272]\nclass = fraud", fillcolor="#e68641"] ;
56 -> 58 ;
59 [label="distance_from_last_transaction <= 50.126\ngini = 0.024\nsamples = 6450\nvalue = [6373, 77]\nclass = fraud", fillcolor="#e5833b"] ;
58 -> 59 ;
60 [label="gini = 0.0\nsamples = 6347\nvalue = [6347, 0]\nclass = fraud", fillcolor="#e58139"] ;
59 -> 60 ;
61 [label="used_chip <= 0.5\ngini = 0.377\nsamples = 103\nvalue = [26, 77]\nclass = not fraud", fillcolor="#7cbeee"] ;
59 -> 61 ;
62 [label="gini = 0.0\nsamples = 71\nvalue = [0, 71]\nclass = not fraud", fillcolor="#399de5"] ;
61 -> 62 ;
63 [label="repeat_retailer <= 0.5\ngini = 0.305\nsamples = 32\nvalue = [26, 6]\nclass = fraud", fillcolor="#eb9e67"] ;
61 -> 63 ;
64 [label="gini = 0.0\nsamples = 6\nvalue = [0, 6]\nclass = not fraud", fillcolor="#399de5"] ;
63 -> 64 ;
65 [label="gini = 0.0\nsamples = 26\nvalue = [26, 0]\nclass = fraud", fillcolor="#e58139"] ;
63 -> 65 ;
66 [label="used_chip <= 0.5\ngini = 0.472\nsamples = 315\nvalue = [120, 195]\nclass = not fraud", fillcolor="#b3d9f5"] ;
58 -> 66 ;
67 [label="gini = 0.0\nsamples = 193\nvalue = [0, 193]\nclass = not fraud", fillcolor="#399de5"] ;
66 -> 67 ;
68 [label="distance_from_last_transaction <= 46.094\ngini = 0.032\nsamples = 122\nvalue = [120, 2]\nclass = fraud", fillcolor="#e5833c"] ;
66 -> 68 ;
69 [label="gini = 0.0\nsamples = 120\nvalue = [120, 0]\nclass = fraud", fillcolor="#e58139"] ;
68 -> 69 ;
70 [label="gini = 0.0\nsamples = 2\nvalue = [0, 2]\nclass = not fraud", fillcolor="#399de5"] ;
68 -> 70 ;
}